{
    "weights": [
        [
            [
                0.6376749401386486,
                -0.7684471495384788,
                0.4792574661562443,
                0.13148350417778998,
                0.8561206698796615
            ],
            [
                0.6404870674152114,
                -0.5678929052504211,
                -0.7132683575494889,
                -0.9331670383741526,
                0.8541414904626683
            ],
            [
                0.456035697088667,
                -0.8298140608435227,
                0.35758663011360947,
                -0.01713354503329101,
                -0.38130489936162326
            ],
            [
                -0.8817403977101568,
                0.9738210391452942,
                -0.46973197282820145,
                0.8976771959908412,
                -0.30796741662373983
            ],
            [
                -0.9643143388506898,
                0.6501543736887778,
                0.04746320706565865,
                0.9864706397622469,
                -0.2539277421751349
            ]
        ],
        [
            [
                0.552211158966982,
                -0.7667588316124148,
                0.027126471532610497,
                0.8573238513843295,
                -0.10636626566554819
            ],
            [
                -0.5422886221517078,
                0.8661876541179301,
                0.43667601799266387,
                0.9662160827948665,
                0.6024373219721417
            ],
            [
                -0.9691077339314487,
                0.9818779138031655,
                -0.8761488737705054,
                -0.3679844294719339,
                0.23599944746682788
            ],
            [
                0.5291335018619872,
                0.9771899845134937,
                -0.24555457717482687,
                0.5174212801147164,
                0.21269951505666818
            ],
            [
                0.49197584930389415,
                0.767235980408435,
                -0.1448973436204799,
                0.73242745584436,
                0.8525499074203597
            ]
        ]
    ],
    "biases": [
        [
            0.749821881422507,
            0.7861079035859246,
            0.3110024867014878,
            -0.06317767876629898,
            -0.1205762561487429
        ],
        [
            0.07861622523139533,
            -0.4417341401395247,
            0.15825858552526673,
            -0.1677907644250134,
            0.42995234041049124
        ]
    ]
}